{
    "keras_loss_train": 0.10319621860980988,
    "keras_acc_train": 0.9604395627975464,
    "keras_loss_test": 0.10916417092084885,
    "keras_acc_test": 0.9561403393745422,
    "keras_weights": [
        [
            -5.341535568237305,
            4.91323184967041
        ],
        [
            0.48360520601272583,
            -0.3608754277229309
        ],
        [
            -4.419106960296631,
            4.165652751922607
        ],
        [
            0.6348662972450256,
            -0.36088311672210693
        ],
        [
            -4.003285884857178,
            4.0276031494140625
        ],
        [
            0.7950897216796875,
            -0.47640812397003174
        ],
        [
            5.790768146514893,
            -6.192703723907471
        ],
        [
            9.099130630493164,
            -8.544677734375
        ],
        [
            -2.790431499481201,
            2.2741169929504395
        ],
        [
            -6.705709934234619,
            6.610671043395996
        ],
        [
            7.020198822021484,
            -6.624070167541504
        ],
        [
            -2.4936609268188477,
            2.6727185249328613
        ],
        [
            3.665112257003784,
            -3.2666144371032715
        ],
        [
            11.590376853942871,
            -11.374115943908691
        ],
        [
            1.9379774332046509,
            -1.527440071105957
        ],
        [
            -1.50858473777771,
            1.1853886842727661
        ],
        [
            -4.573840141296387,
            4.7860283851623535
        ],
        [
            -1.9529228210449219,
            2.565364122390747
        ],
        [
            -1.6256868839263916,
            1.5531665086746216
        ],
        [
            -1.3095415830612183,
            1.5939445495605469
        ],
        [
            -0.6730878949165344,
            0.8163017630577087
        ],
        [
            2.2871599197387695,
            -2.373033285140991
        ],
        [
            -1.4338407516479492,
            0.9869710803031921
        ],
        [
            5.366564750671387,
            -5.068971157073975
        ],
        [
            -0.7210834622383118,
            0.3583480417728424
        ],
        [
            1.110243320465088,
            -1.3220717906951904
        ],
        [
            1.4115163087844849,
            -0.9262533187866211
        ],
        [
            1.5077970027923584,
            -2.47886061668396
        ],
        [
            3.4136343002319336,
            -3.3584914207458496
        ],
        [
            1.2965970039367676,
            -1.689592719078064
        ]
    ]
}