{
    "keras_loss_train": 0.04576677829027176,
    "keras_acc_train": 0.9929577708244324,
    "keras_loss_test": 0.04595912992954254,
    "keras_acc_test": 1.0,
    "keras_weights": [
        [
            3.6952922344207764,
            -4.0045366287231445,
            1.2839977741241455
        ],
        [
            -0.9199098348617554,
            -1.5228464603424072,
            2.963521718978882
        ],
        [
            3.7843852043151855,
            -4.879138946533203,
            3.7462849617004395
        ],
        [
            -6.308824062347412,
            5.193697929382324,
            5.028199672698975
        ],
        [
            -0.6053556203842163,
            -1.0321967601776123,
            0.37025102972984314
        ],
        [
            -1.5799193382263184,
            1.9021395444869995,
            -2.2869873046875
        ],
        [
            5.980776786804199,
            -0.23480868339538574,
            -11.141037940979004
        ],
        [
            -3.196561098098755,
            3.0889246463775635,
            -0.6029495000839233
        ],
        [
            -0.7510986328125,
            4.9462761878967285,
            -6.882970333099365
        ],
        [
            -1.8189196586608887,
            -4.652197360992432,
            7.850244998931885
        ],
        [
            -3.8591554164886475,
            7.7820353507995605,
            -7.728349685668945
        ],
        [
            1.4188024997711182,
            1.1801373958587646,
            -5.757308483123779
        ],
        [
            5.787012577056885,
            -6.439896583557129,
            0.7911968231201172
        ]
    ]
}